time	culture 1	culture 2	culture 3	culture 4	culture 5	culture 6	phage_vial 1	phage_vial 2	phage_vial 3
14.239166259765625	79.35887484594379	130.3844027096987	83.4932402615638	-11.041288950003876	58.70279121157783	121.93853091798519	69.10541439806414	71.90112389528096	-79.01040009497798
138.62041330337524	79.45746115366958	130.68156633805148	83.74665222449556	-11.041288950003876	58.82197467804163	122.05420775051594	69.15517241379312	72.12495581123895	-79.01040009497798
262.99067521095276	79.42883932239435	131.00047364652755	83.91031411722231	-11.041288950003876	58.931623467188324	122.14473744554002	69.6228977616455	72.25662164415543	-79.01040009497798
387.32191228866577	79.49244339189482	131.341124635127	84.01590243511055	-11.041288950003876	59.04127225633503	122.25538485056944	69.73236539624925	72.38828747707188	-79.01040009497798
511.62611198425293	79.56876827529545	131.7180150905987	83.90503470132792	-11.041288950003876	59.16045572279882	122.3157379805855	69.50845432546886	72.56384192096048	-79.01040009497798
635.9947602748871	79.68643580387135	132.76171173652037	84.17428491194289	-11.007145266325907	59.34399826115307	121.89326607047315	69.72241379310346	72.78767383691844	-78.9322806600973
760.3630409240723	79.84226577414756	133.22557691248554	84.40657921129701	-11.007145266325907	59.49416942889746	122.21012000305743	69.70251058681185	73.13000500250125	-78.9322806600973
884.7313754558563	79.92177086102319	133.29080795285566	84.34322622056409	-11.007145266325907	59.658642612617506	122.33082626308953	70.05081669691471	73.27044855761213	-78.9322806600973
1009.0159065723419	80.03943838959911	133.5299884342127	84.29571147751439	-11.007145266325907	59.84218515097177	122.45656195062297	70.22994555353904	73.42405869601465	-78.9322806600973
1133.381000995636	80.11576327299969	133.64595472820403	84.14260841657644	-11.007145266325907	59.949450270789185	122.4615913781243	70.55337265577738	73.62155744538934	-78.9322806600973
1257.7208030223846	80.16028612165005	134.16055515779036	84.0792554258435	-11.007145266325907	60.05909905993588	122.4766796606283	70.46878402903812	73.70494580623644	-78.9322806600973
1382.0920934677124	80.25569222590079	134.76213030787025	84.24819673446467	-11.007145266325907	60.113923454509234	122.55715050064973	70.37424379915306	73.88050025012504	-78.9322806600973
1506.440434217453	80.3606389405766	134.99406289585284	83.75193164038997	-11.007145266325907	60.17113151841186	122.5822976381564	70.55834845735026	73.99899949974986	-78.9322806600973
1630.743798494339	80.46876585872744	134.89984028198486	83.46684318209174	-11.007145266325907	60.23549059030231	122.66779790567912	70.76733212341199	74.22722027680507	-78.9322806600973
1755.1157236099243	80.46876585872744	135.31297020432885	83.60410799534644	-11.007145266325907	60.180666195728975	122.72312160819385	71.11563823351484	74.30621977655494	-78.9322806600973
1879.4156379699707	80.60551460815351	134.90708817535935	83.74137280860114	-11.007145266325907	60.24025792896087	122.91423985324467	71.07583182093167	74.45105219276303	-78.9322806600973
2003.7844483852386	80.5800729803533	136.90750674670923	84.82365306695553	-11.007145266325907	60.60734300566937	123.19588779331959	71.24500907441019	74.49494080373518	-78.9322806600973
2128.154561519623	80.6309562359537	136.54511207798646	84.90284430537172	-11.007145266325907	60.70030610951113	123.5228005809065	71.2151542649728	74.71438385859594	-78.9322806600973
2252.5246493816376	80.72954254367946	136.03051164840005	85.08762386167616	-11.007145266325907	60.80518755999928	123.46244745089045	71.23505747126438	74.78021677505416	-78.9322806600973
2376.8676748275757	80.77088518885478	136.07399900864684	85.0189914550488	-11.007145266325907	60.88861598652394	123.51777115340519	71.2151542649728	75.10938135734533	-78.9322806600973
2501.2382469177246	80.85675068268047	136.50887261111419	85.11930035704263	-11.007145266325907	60.94344038109728	123.58818313842389	71.20022686025412	74.95138235784559	-78.9322806600973
2625.6089236736298	80.89491312438076	136.6755741587267	85.23544750671965	-11.007145266325907	60.98873009835353	123.71391882595732	71.38433151845132	75.01282641320658	-78.9322806600973
2749.9775409698486	80.98077861820644	136.94374621358153	85.27768283387496	-11.007145266325907	61.00064844499991	123.74912481846673	70.9713399879008	75.0742704685676	-78.9322806600973
2874.347629070282	81.053923298132	137.48733821666576	85.27768283387496	-11.007145266325907	61.06500751689036	123.97041962852559	71.04597701149429	75.41660163415041	-78.9322806600973
2998.64656996727	81.24155530315846	138.44406014209395	85.55221246038438	-11.007145266325907	61.181807314024894	124.13136130856836	70.94148517846342	75.56143405035847	-78.9322806600973
3123.017592191696	82.33554529856698	145.40203778157183	91.87167328599517	-11.007145266325907	63.627452045862086	124.46833295115796	73.1905474894132	77.02731365682841	-78.9322806600973
3247.3929011821747	82.48183465841814	145.02514732610013	91.94558510851694	-11.007145266325907	63.76332119763082	124.62424520369945	72.58349969751967	78.09819576454893	-78.9322806600973
3371.7635045051575	82.62176361131922	145.74268877017133	92.03533517872195	-11.007145266325907	63.849133293484755	124.67453947871282	72.86214458560194	78.58535934633983	-78.9322806600973
3496.136198759079	82.76805297117035	146.17031447926422	91.95614394030578	-11.007145266325907	63.83006393885055	124.76003974623556	72.90692679975801	78.87063531765881	-78.9322806600973
3620.507393836975	82.87936009279622	146.26453709313213	91.92446744493928	-11.007145266325907	63.875353656106796	124.87068715126499	72.78750756200849	79.10324495581123	-78.9322806600973
3744.8224482536316	82.99384741789714	146.29352866662992	91.93502627672811	-11.007145266325907	63.89919034939955	124.97630512879307	72.79745916515428	79.23491078872769	-78.9322806600973
3868.989905834198	82.57088035571884	145.4382772484441	91.60770249127455	-11.041288950003876	63.660823416471956	124.6695100512115	72.48398366606173	79.25685509421376	-79.01040009497798
3993.146677017212	82.68218747734471	145.6774577298012	91.67105548200746	-11.041288950003876	63.756170189642994	124.77009860123825	72.39441923774956	79.52018676004667	-79.01040009497798
4117.296448469162	82.87299968584618	145.74993666354575	91.78192321579017	-11.041288950003876	63.83721494683837	124.87571657876632	72.04113732607384	79.63868600967149	-79.01040009497798
4241.601102352142	83.14967738817333	145.9746213581539	91.99309985156663	-11.041288950003876	63.892039341411724	125.07186425131849	72.20533877797945	79.93712856428213	-79.01040009497798
4365.675443649292	83.24508349242407	145.960125571405	91.882232117784	-11.041288950003876	63.89919034939955	125.07186425131849	72.2849516031458	79.97662831415708	-79.01040009497798
4490.032172203064	83.4676977356758	146.1848102660131	91.9403056926225	-11.007145266325907	64.02075748519263	125.38871818390277	72.38446763460378	80.26190428547606	-78.9322806600973
4614.3826422691345	83.5694642468766	146.2717849865066	91.882232117784	-11.007145266325907	64.02314115452191	125.44404188641751	72.34963702359347	80.46379189594794	-78.9322806600973
4738.528548002243	83.5567434329765	146.32976813350223	91.69217314558513	-11.007145266325907	64.03744317049757	125.47421845142551	72.43920145190563	80.41990328497582	-78.9322806600973
4862.683495521545	83.6585099441773	146.50371757448917	91.55490833233044	-11.007145266325907	64.08988389574164	125.61504242146299	72.66808832425895	80.51645822911453	-78.9322806600973
4986.838791370392	83.72211401367778	146.57619650823372	91.71857022505722	-11.007145266325907	64.1423246209857	125.74077810899642	72.59842710223838	80.59545772886443	-78.9322806600973
5111.199449539185	83.84932215267877	146.62693176185493	91.83999679062867	-11.007145266325907	64.23528772482747	125.97213177405793	72.65316091954026	80.81490078372518	-78.9322806600973
5235.371470928192	83.84932215267877	146.67766701547615	91.72384964095161	-11.007145266325907	64.25912441812022	125.9771612015593	72.62330611010287	80.80612306153074	-78.9322806600973
5359.464240074158	83.90974601870425	146.72115437572285	91.68161431379633	-11.007145266325907	64.29011211940082	126.02745547657267	72.69794313369631	80.95973319993327	-78.9322806600973
5483.621862649918	83.97653029167975	146.8443685630886	91.90334978136165	-11.007145266325907	64.32825082866923	126.10289688909273	72.93180580762251	81.0255661163915	-78.9322806600973
5607.968505620956	84.09101761678066	146.8443685630886	92.06173225819397	-11.007145266325907	64.37830788458403	126.27892685163954	73.08605565638233	81.25378689344669	-78.9322806600973
5732.3396627902985	84.14190087238107	147.05455747094786	92.08812933766602	-11.007145266325907	64.37592421525476	126.42980967667965	73.21542649727769	81.34156411539102	-78.9322806600973
5856.424603700638	84.135540465431	147.41695213967063	91.84527620652311	-11.007145266325907	64.37592421525476	126.41975082167701	72.99649122807018	81.27573119893279	-78.9322806600973
5980.582554578781	84.1991445349315	147.26474637880708	92.11452641713812	-11.007145266325907	64.39976090854752	126.46501566918903	72.88702359346642	81.38545272636317	-78.9322806600973
6104.740153312683	84.26274860443199	147.46768739329184	92.17259999197663	-11.007145266325907	64.44743429513304	126.53039822670641	72.81736237144587	81.47322994830748	-78.9322806600973
6229.100063562393	84.42493898165827	147.80109048851685	92.46296786616925	-11.007145266325907	64.5403973989748	126.68128105174652	72.99151542649729	81.688284142071	-78.9322806600973
6353.47185087204	84.40267755733309	147.65613262102767	92.51048260921898	-11.007145266325907	64.42598127116955	126.68128105174652	72.69296733212342	81.86822744705687	-78.9322806600973
6477.644463062286	84.36133491215774	147.6778763011511	92.2465118144984	-11.007145266325907	64.47127098842579	126.63601620423451	72.55862068965519	81.86383858595963	-78.9322806600973
6601.800832033157	84.38677653995795	147.8663215288869	92.51576202511337	-11.007145266325907	64.45696897245014	126.63098677673315	72.64320931639446	81.89017175254291	-78.9322806600973
6725.95831990242	84.42175877818325	147.83732995538912	92.51048260921898	-11.007145266325907	64.51894437501132	126.68128105174652	72.65813672111314	81.99111555777884	-78.9322806600973
6850.316361427307	84.53306589980912	148.0547667566228	92.65302683836809	-11.007145266325907	64.58330344690177	126.83216387678668	72.69296733212342	82.13155911288976	-78.9322806600973
6974.486710548401	84.48536284768375	147.89531310238476	92.32042363702014	-11.007145266325907	64.59760546287742	126.78186960177328	72.63325771324865	82.17983658495912	-78.9322806600973
7098.643431186676	84.53942630675914	147.90980888913367	92.28346772575925	-11.007145266325907	64.66196453476786	126.77181074677063	72.62828191167577	82.17544772386192	-78.9322806600973
7222.800662517548	84.57758874845945	147.76485102164452	92.29402655754808	-11.007145266325907	64.6881848973899	126.87239929679738	72.62330611010287	82.22372519593134	-78.9322806600973
7346.9577729702	84.61257098668473	147.84457784876355	92.18315882376545	-11.007145266325907	64.69056856671918	126.88748757930138	72.7327737447066	82.34661330665328	-78.9322806600973
7471.115310907364	84.61257098668473	148.21422041086083	92.10924700124369	-11.007145266325907	64.7096379213534	126.9327524268134	72.58847549909257	82.35100216775052	-78.9322806600973
7595.273472547531	84.63165220753487	148.4823924657157	92.13564408071574	-11.007145266325907	64.6786502200728	126.98304670182677	72.70291893526924	82.35100216775052	-78.9322806600973
7719.429834842682	84.69843648051038	148.64184611995375	92.04061459461634	-11.007145266325907	64.7096379213534	126.99813498433082	72.72779794313372	82.482668000667	-78.9322806600973
7843.5887315273285	84.67935525966024	148.72882084044718	92.08812933766602	-11.007145266325907	64.71440526001194	127.03334097684018	72.68799153055053	82.61433383358343	-78.9322806600973
7967.747084140778	84.70797709093547	148.78680398744285	92.11452641713812	-11.007145266325907	64.78114800123168	127.03334097684018	72.80243496672718	82.70649991662499	-78.9322806600973
8092.015518903732	84.82246441603634	148.75056452057058	92.29402655754808	-11.007145266325907	64.85265808110998	127.17919437437898	72.88702359346642	82.8206103051526	-78.9322806600973
8216.39445400238	84.85744665426161	149.01148868205098	92.48408552974692	-11.007145266325907	64.87649477440273	127.23954750439503	72.88702359346642	82.92155411038854	-78.9322806600973
8340.570662260056	84.8033831951862	148.93176185493198	92.44712961848603	-11.007145266325907	64.9003314676955	127.18925322938166	72.72282214156081	82.88205436051359	-78.9322806600973
8464.655111074448	84.79702278823615	148.87377870793634	92.76917398804515	-11.007145266325907	64.90509880635403	127.224459221891	72.54866908650939	82.85133233283311	-78.9322806600973
8589.01584982872	84.94013194461229	148.92451396155755	92.88004172182778	-11.007145266325907	64.95753953159812	127.32504777191774	72.78750756200849	83.11027513756879	-78.9322806600973
8713.391946315765	84.96557357241248	149.15644654954008	92.9275564648775	-11.007145266325907	64.99567824086652	127.33510662692042	72.45910465819723	83.17171919292981	-78.9322806600973
8837.684210777283	84.97829438631256	149.18543812303793	93.03842419866012	-11.007145266325907	65.01951493415929	127.34013605442175	72.7377495462795	83.2287743871936	-78.9322806600973
8961.859468460083	84.94013194461229	149.24342127003356	93.0173065350825	-11.007145266325907	64.9885272328787	127.24457693189636	72.63325771324865	83.18488577622145	-78.9322806600973
9086.197946071625	85.08960150793843	149.22892548328466	93.26015966622545	-11.007145266325907	65.08149033672045	127.43569517694718	72.7427253478524	83.3165516091379	-78.9322806600973
9210.575538635254	85.15320557743891	149.3811312441483	93.36574798411364	-11.007145266325907	65.1172453766596	127.46084231445386	72.80243496672718	83.27266299816576	-78.9322806600973
9334.953669548035	85.2136294434644	149.43911439114393	93.46077747021307	-11.007145266325907	65.16253509391585	127.44072460444853	72.88204779189353	83.39116224779056	-78.9322806600973
9459.255873918533	85.2136294434644	149.4608580712673	93.64555702651748	-11.007145266325907	65.18398811787934	127.48598945196055	72.64320931639446	83.44821744205436	-78.9322806600973
9583.404334545135	85.12140354268867	149.4826017513907	93.39742447948014	-11.007145266325907	65.16253509391585	127.41557746694184	72.96663641863279	83.38677338669333	-78.9322806600973
9707.56372308731	85.10550252531354	149.43911439114393	93.4818951337907	-11.007145266325907	65.22451049647702	127.48598945196055	72.99649122807018	83.4043288310822	-78.9322806600973
9831.723820447922	85.1881878156642	149.6420554056287	93.31295382516953	-11.007145266325907	65.2578818670869	127.57651914698461	73.1308378705384	83.4569951642488	-78.9322806600973
9956.090324401855	85.29313453034003	149.72178223274773	93.61388053115103	-11.007145266325907	65.3460776322701	127.6921959795154	72.9716122202057	83.66766049691513	-78.9322806600973
10080.471378564835	85.34401778594041	149.71453433937324	93.82505716692748	-11.007145266325907	65.36037964824575	127.74249025452878	73.27513611615245	83.66766049691513	-78.9322806600973
10204.551483392715	85.2804137164399	149.5623285785097	93.77754242387776	-11.007145266325907	65.35084497092865	127.6921959795154	73.26020871143376	83.58427213606804	-78.9322806600973
10328.611909151077	85.31221575119017	149.88848378036022	93.79866008745542	-11.007145266325907	65.4271223894655	127.68716655201408	73.25025710828797	83.62377188594299	-78.9322806600973
10452.972469091415	85.44260409366619	150.0261937544749	93.972880811971	-11.007145266325907	65.48671412269739	127.74249025452878	73.46421657592258	83.79932632983159	-78.9322806600973
10577.149146795273	85.3949010415408	149.59856804538197	93.99927789144306	-11.007145266325907	65.44857541342896	127.68716655201408	73.52890199637025	83.66766049691513	-78.9322806600973
10701.235017299652	85.43624368671611	149.82325273999007	94.09430737754249	-11.007145266325907	65.44857541342896	127.70225483451804	73.28508771929825	83.72910455227613	-78.9322806600973
10825.395472288132	85.43942389019115	149.7435259128711	94.08902796164806	-11.007145266325907	65.45095908275825	127.7072842620194	73.54382940108893	83.75543771885944	-78.9322806600973
10949.55423617363	85.49984775621662	149.94646692735583	94.17877803185306	-11.007145266325907	65.47717944538029	127.73243139952609	73.46919237749547	83.81688177422043	-78.9322806600973
11073.913793325424	85.59843406394239	149.87398799361128	94.43746941067923	-11.007145266325907	65.5558405332464	127.8782847970649	73.61349062310951	84.00121394030347	-78.9322806600973
11198.092255592346	85.54119040139194	149.76526959299446	94.33188109279101	-11.007145266325907	65.44857541342896	127.78775510204079	73.73290986085905	83.84760380190095	-78.9322806600973
11322.217019081116	85.50302795969165	150.03344164784932	94.60113130340596	-11.007145266325907	65.47241210672172	127.88834365206758	73.64832123411978	83.97488077372019	-78.9322806600973
11446.376452922821	85.53482999444189	150.22913476895963	94.71727845308307	-11.007145266325907	65.52008549330725	127.88834365206758	73.70305505142166	84.01876938469235	-78.9322806600973
11570.736004590988	85.66839854039293	150.30886159607869	95.0129257431701	-11.007145266325907	65.5844445651977	127.98893220209436	73.85232909860859	84.11532432883108	-78.9322806600973
11694.912886619568	85.63023609869263	150.250878449083	94.99180807959247	-11.007145266325907	65.56299154123423	127.92857907207826	73.88218390804597	84.093380023345	-78.9322806600973
11819.00873875618	85.70974118556825	150.43932367681887	95.06044048621982	-11.007145266325907	65.5844445651977	127.90343193457157	73.81252268602542	84.10654660663664	-78.9322806600973
11943.168637752533	85.72564220294338	150.51180261056342	94.99180807959247	-11.007145266325907	65.60351391983191	127.92354964457694	73.86725650332727	84.10654660663664	-78.9322806600973
12067.48985338211	85.85921074889443	150.87419727928622	95.26633770610188	-11.007145266325907	65.63926895977106	128.0895207521211	74.03145795523292	84.26015674503921	-78.9322806600973
12191.666579246521	85.78606606896885	150.52629839731236	95.0973963974807	-11.007145266325907	65.5939792425148	128.04425590460906	73.95682093163946	84.2118792729698	-78.9322806600973
12315.826947450638	85.82104830719413	150.51905050393793	95.04460223853658	-11.007145266325907	65.5653752105635	128.03922647710772	74.00160314579553	84.28210105052528	-78.9322806600973
12439.988154888153	85.79878688286894	150.4538194635678	95.03404340674776	-11.007145266325907	65.59159557318553	128.03922647710772	74.03145795523292	84.32598966149743	-78.9322806600973
12564.088936805725	85.75426403421861	150.5335462906868	95.11851406105832	-11.007145266325907	65.61066492781974	128.03922647710772	74.11604658197217	84.23821243955312	-78.9322806600973
12688.254114866257	85.79878688286894	150.62052101118027	95.30857303325719	-11.007145266325907	65.66072198373453	127.99396162959567	74.0414095583787	84.26015674503921	-78.9322806600973
12812.582504034042	85.97369807399531	150.77272677204388	95.42999959882866	-11.007145266325907	65.78467278885688	128.15490330963848	74.03145795523292	84.4971552442888	-78.9322806600973
12936.769384145737	85.87193156279452	150.59152943768248	95.20826413126336	-11.007145266325907	65.67979133836874	128.03419704960638	73.97174833635815	84.3216008004002	-78.9322806600973
13061.08376121521	85.98005848094536	150.75098309192046	95.4563966783007	-11.007145266325907	65.78944012751543	128.12472674463044	74.08619177253478	84.42693346673337	-78.9322806600973
13185.264205932617	85.96415746357025	150.72199151842267	95.41944076703982	-11.007145266325907	65.80135847416182	128.13981502713443	74.08619177253478	84.45765549441388	-78.9322806600973
13309.330344676971	86.03094173654574	150.74373519854603	95.3666466080957	-11.007145266325907	65.84903186074733	128.19010930214785	74.14092558983666	84.50154410538603	-78.9322806600973
13433.408789873123	85.99913970179553	150.64226469130364	95.39304368756777	-11.007145266325907	65.85856653806444	128.19010930214785	74.05136116152451	84.54543271635819	-78.9322806600973
13557.570776700974	86.07228438172109	150.87419727928622	95.41416135114542	-11.007145266325907	65.89908891666214	128.24040357716123	74.03145795523292	84.54982157745539	-78.9322806600973
13681.935033082962	86.1740508929219	151.10612986726883	95.63061740281628	-11.007145266325907	65.95391331123548	128.35105098219066	74.18570780399273	84.72976488244119	-78.9322806600973
13806.117507696152	86.07864478867111	150.8669493859118	95.60422032334422	-11.007145266325907	65.93484395660128	128.2906978521746	74.17078039927407	84.63320993830249	-78.9322806600973
13930.483874559402	86.16769048597185	151.2583356281324	95.57254382797777	-11.007145266325907	65.99681935916247	128.39128640220136	74.2653206291591	84.75170918792728	-78.9322806600973
14054.66710281372	86.10726661994637	150.9611719997797	95.58310265976657	-11.007145266325907	65.95868064989405	128.2756095696706	74.23546581972172	84.67709854927463	-78.9322806600973
14178.828843832016	86.10726661994637	150.9104367461585	95.588382075661	-11.007145266325907	65.97775000452826	128.3057861346786	74.23546581972172	84.72098716024679	-78.9322806600973
14302.991050243378	85.96733766704526	151.0626425070221	95.37720543988453	-11.007145266325907	65.92530927928416	128.2906978521746	74.18570780399273	84.76487577121894	-78.9322806600973
14427.091384410858	86.07546458519613	151.17860880101338	95.52502908492805	-11.007145266325907	65.98728468184537	128.34099212718797	74.35986085904416	84.78243121560779	-78.9322806600973
